Language model created by QuickLM on Wed May 20 02:59:14 EDT 2015
Copyright (c) 1996-2010 Carnegie Mellon University and Alexander I. Rudnicky

The model is in standard ARPA format, designed by Doug Paul while he was at MITRE.

The code that was used to produce this language model is available in Open Source.
Please visit http://www.speech.cs.cmu.edu/tools/ for more information

The (fixed) discount mass is 0.5. The backoffs are computed using the ratio method.
This model based on a corpus of 2 sentences and 3 words

\data\
ngram 1=3
ngram 2=3
ngram 3=3

\1-grams:
-0.8451 </s> -0.3010
-0.8451 <s> -0.1963
-0.6690 YES -0.1091

\2-grams:
-0.3010 <s> YES 0.0000
-0.4771 YES </s> -0.3010
-0.7782 YES YES -0.1249

\3-grams:
-0.6021 <s> YES </s>
-0.6021 <s> YES YES
-0.3010 YES YES </s>

\end\
