Language model created by QuickLM on Wed May 20 03:12:43 EDT 2015
Copyright (c) 1996-2010 Carnegie Mellon University and Alexander I. Rudnicky

The model is in standard ARPA format, designed by Doug Paul while he was at MITRE.

The code that was used to produce this language model is available in Open Source.
Please visit http://www.speech.cs.cmu.edu/tools/ for more information

The (fixed) discount mass is 0.5. The backoffs are computed using the ratio method.
This model based on a corpus of 5 sentences and 5 words

\data\
ngram 1=5
ngram 2=7
ngram 3=5

\1-grams:
-0.8062 </s> -0.3010
-0.8062 <s> -0.2109
-1.2041 HEY -0.2272
-1.5051 HI -0.2272
-1.0280 YES -0.1761

\2-grams:
-0.6990 <s> HEY 0.0000
-1.0000 <s> HI 0.0000
-0.6990 <s> YES 0.0000
-0.3010 HEY </s> -0.3010
-0.3010 HI </s> -0.3010
-0.4771 YES </s> -0.3010
-0.7782 YES YES -0.1249

\3-grams:
-0.3010 <s> HEY </s>
-0.3010 <s> HI </s>
-0.6021 <s> YES </s>
-0.6021 <s> YES YES
-0.3010 YES YES </s>

\end\
