Language model created by QuickLM on Wed May 20 03:14:39 EDT 2015
Copyright (c) 1996-2010 Carnegie Mellon University and Alexander I. Rudnicky

The model is in standard ARPA format, designed by Doug Paul while he was at MITRE.

The code that was used to produce this language model is available in Open Source.
Please visit http://www.speech.cs.cmu.edu/tools/ for more information

The (fixed) discount mass is 0.5. The backoffs are computed using the ratio method.
This model based on a corpus of 5 sentences and 5 words

\data\
ngram 1=5
ngram 2=8
ngram 3=7

\1-grams:
-0.8325 </s> -0.3010
-0.8325 <s> -0.2009
-1.5315 HELLO -0.2319
-1.0544 HEY -0.1845
-1.0544 YES -0.1845

\2-grams:
-1.0000 <s> HELLO 0.0000
-0.6990 <s> HEY 0.0000
-0.6990 <s> YES 0.0000
-0.3010 HELLO </s> -0.3010
-0.4771 HEY </s> -0.3010
-0.7782 HEY HEY -0.1249
-0.4771 YES </s> -0.3010
-0.7782 YES YES -0.1249

\3-grams:
-0.3010 <s> HELLO </s>
-0.6021 <s> HEY </s>
-0.6021 <s> HEY HEY
-0.6021 <s> YES </s>
-0.6021 <s> YES YES
-0.3010 HEY HEY </s>
-0.3010 YES YES </s>

\end\
